7.633667945411976490e-08
1.012357133734586350e-05
4.324003184739384851e-05
5.505981641830886224e-05
1.866613250697365847e-04
2.990325025176087618e-04
5.650863910944740973e-04
1.444789408463318650e-03
3.473062929648144774e-03
8.094752351733163626e-03
1.481601225958749900e-02
2.164479051085949762e-02
2.678699999099244666e-02
2.566226280520783262e-02
2.557457482654597325e-02
2.723097049843579281e-02
2.505540436443130098e-02
1.803888400502023232e-02
1.098438225956251645e-02
5.239912288173678712e-03
2.090934371938886829e-03
7.502687376291831099e-04
2.654563669664159278e-04
2.809562111578252862e-04
1.889625307211532609e-04
1.086123163823583777e-04
4.564640090181657569e-05
2.172126813233733161e-05
5.272752301733909816e-07
2.401369633180549834e-05
9.012221164358155505e-05
2.288579694277615437e-04
6.378932425445090534e-04
1.493149131477925808e-03
5.183485967564713075e-03
1.351344960344151754e-02
2.488052576303117699e-02
3.770099870230970290e-02
4.816593271002617138e-02
5.863088259409347108e-02
6.278820553369306168e-02
5.870659822752340856e-02
5.706645688035149461e-02
6.129960370811482484e-02
6.157375202581871071e-02
5.235100466800025193e-02
4.236660746733259680e-02
3.031419805065395379e-02
1.816620705469966859e-02
7.924192569311937911e-03
2.331655908044035982e-03
9.226781535730335399e-04
6.474073609351639353e-04
2.870785904429736120e-04
6.248264843920997656e-05
3.301320673146313568e-05
-2.210130540753052159e-06
9.688355959293783843e-05
2.971264751291348622e-04
6.373700310084890212e-04
1.724716546577260718e-03
7.015273367543131168e-03
1.937223654153208061e-02
2.980371727822202221e-02
4.103373719556257376e-02
5.287706639233260425e-02
6.024491371312232224e-02
6.357246736938235165e-02
6.348245806390725998e-02
5.979837196128907906e-02
5.854795440427498776e-02
6.213583216816267324e-02
6.327701924526417387e-02
6.166892800795472501e-02
5.601757163145570928e-02
4.545561977225692080e-02
3.367186001647134302e-02
2.291501910670467809e-02
1.082077425099541371e-02
2.648895696235926620e-03
8.682910506766949215e-04
6.431042446413599324e-04
1.828214316102320957e-04
3.376369453269464330e-05
3.536787040439774254e-05
2.742819865547164180e-04
4.891673486668089536e-04
1.176431151549639292e-03
4.442570652503433082e-03
1.598162071133462162e-02
3.040670001945897094e-02
4.192057329263837451e-02
5.357526183538922904e-02
6.147585322357358717e-02
6.423529009904843656e-02
6.460890567529649353e-02
6.426255720178469799e-02
6.303575036411404597e-02
6.218943336852262443e-02
6.366588679308994581e-02
6.340470957073526814e-02
6.347267349302954109e-02
6.219191296007813008e-02
5.568463130161264985e-02
4.536149832744146987e-02
3.312833364605980574e-02
1.984479218199779876e-02
6.760876951742456412e-03
1.235492771019693114e-03
4.937472917599122378e-04
2.067703654506627606e-04
1.444440546829218070e-05
9.015109466562097541e-05
3.781071490132113604e-04
7.487718631215022937e-04
2.060267720690873040e-03
8.778683256324781511e-03
2.437218317202678730e-02
4.079706519488547622e-02
5.206129255597706507e-02
5.971330098132310304e-02
6.414288351632721485e-02
6.561606711727135943e-02
6.541778127929492870e-02
6.468875880222914321e-02
6.383664528605570432e-02
6.283936755637460625e-02
6.363015512001571339e-02
6.282788121073942800e-02
6.309220650878567815e-02
6.293036587775535651e-02
5.965223736579151892e-02
5.301903263205767075e-02
4.251893848748511395e-02
2.755515913175065820e-02
1.103409438628995265e-02
1.707209995641881771e-03
-6.177833831827248933e-05
-1.127040196061132116e-04
-5.953954955479099043e-05
1.322458120557185859e-04
3.906609158862301692e-04
9.585392922885436345e-04
3.209206654779819812e-03
1.298058425112874961e-02
3.142570799733743897e-02
4.726250902770647022e-02
5.646457203738903391e-02
6.276332414973247176e-02
6.534056689627816550e-02
6.581425555709310982e-02
6.491875645896436064e-02
6.401588219197189289e-02
6.319379425799025174e-02
6.183229585150846336e-02
6.156646307713137256e-02
6.011748871880832207e-02
6.006766322942983655e-02
6.042313021409041751e-02
5.974041739282878044e-02
5.508591085122901965e-02
4.680422596046811962e-02
3.278582042361124355e-02
1.407963133710901302e-02
1.748240204402057860e-03
-1.583241867161997796e-03
-1.076776056357287318e-03
-2.850409330429053297e-04
9.611719226391126833e-05
4.201134573708435716e-04
1.242568335359387714e-03
4.581633675730072477e-03
1.704822358924657291e-02
3.644443237442121508e-02
5.086545535951085550e-02
5.933075118940373677e-02
6.396235054493711047e-02
6.494578361498699881e-02
6.475258716671351833e-02
6.406190731194663646e-02
6.315194802339672842e-02
6.210627069492774543e-02
6.002409126284494190e-02
5.849159005919604692e-02
5.593937675046971314e-02
5.508501535823302070e-02
5.518721813768541484e-02
5.622210351415924540e-02
5.403298969693962756e-02
4.719201227075740107e-02
3.514166133817978738e-02
1.611525914799840850e-02
1.117340947622736226e-03
-4.148743718574584259e-03
-2.570912043942282822e-03
-2.702152240963669248e-04
9.192630174836022641e-05
4.146211081448879557e-04
1.537273281679005883e-03
6.171273767584405448e-03
1.993175032092617260e-02
4.016450163289954356e-02
5.336801253229622732e-02
6.094894720345577638e-02
6.377998570178977644e-02
6.364451091347780864e-02
6.370835489345223757e-02
6.329309115984188550e-02
6.255263630966037547e-02
6.116011135164628465e-02
5.821115498245657549e-02
5.569754507864400905e-02
5.134126367290638149e-02
4.926802434206876274e-02
4.896570528852321746e-02
5.100224900216088902e-02
5.033549987890832689e-02
4.570255911592551595e-02
3.509426062070360175e-02
1.577403602881642317e-02
-7.447207361000100865e-04
-7.359350974917372272e-03
-4.434379662578524610e-03
-4.387623615264515551e-04
5.847078887516181687e-05
4.396387995372767255e-04
2.189295472883978893e-03
7.419718712012643783e-03
2.218098170493413082e-02
4.281219159535351593e-02
5.475248688577162570e-02
6.204803658822319323e-02
6.378160300349855483e-02
6.330567233113904013e-02
6.342085949333427231e-02
6.323389898436060363e-02
6.193095070180851952e-02
5.989171905170407456e-02
5.554297423981881254e-02
5.015054298897607399e-02
4.467694905583717568e-02
4.245383471418680277e-02
4.350490863119826912e-02
4.606218929071181217e-02
4.639186398673335321e-02
4.267871216828708625e-02
3.292433573321525142e-02
1.398312922888029532e-02
-4.151953698415197964e-03
-1.130016374553003376e-02
-6.962221172530069432e-03
-8.996897897474413373e-04
4.835362105036085357e-05
5.535483670039174431e-04
2.621698710196529187e-03
8.621568426536354440e-03
2.375314605797132841e-02
4.453394040060119213e-02
5.513850963758814422e-02
6.219061036647963170e-02
6.333535764231422449e-02
6.282107401158709692e-02
6.279141892664309721e-02
6.284645375734973505e-02
6.078152811771607433e-02
5.634170802208447737e-02
4.837354815214092024e-02
4.019690135983401691e-02
3.519963971630528377e-02
3.452549126108657440e-02
3.753521314921942631e-02
4.202744971215086750e-02
4.270041007031297881e-02
3.915226996359083556e-02
3.022342872525313889e-02
1.090202437310961586e-02
-9.316865794391638103e-03
-1.764727375577341412e-02
-1.023654449380019711e-02
-1.713054533271498453e-03
3.996388335697360477e-05
5.167133430368056916e-04
2.285455494233342225e-03
8.689772703084250663e-03
2.395484130222245642e-02
4.499690787386882024e-02
5.424937401596865993e-02
6.037286811093387634e-02
6.218905911920088320e-02
6.181706998326671337e-02
6.227314994304537776e-02
6.047808832322557060e-02
5.536910033241512763e-02
4.713631221220408035e-02
3.833046624811300984e-02
3.276833505265455693e-02
3.081933928939238274e-02
3.076184968821360846e-02
3.181854745574942689e-02
3.704065762968978409e-02
3.744146539960834658e-02
3.372818935345379965e-02
2.559891833782801385e-02
6.330951387241985466e-03
-1.581885532920593307e-02
-2.615524660059692988e-02
-1.625222166790441305e-02
-2.569758323578653133e-03
-6.409342168346413200e-05
4.416326283044392001e-04
1.767649477481368072e-03
6.979015885452966028e-03
2.213296544924940948e-02
4.254682094128140607e-02
5.110470462869350777e-02
5.705028856103500773e-02
5.955436906694269034e-02
5.923155340153420101e-02
5.748784000242288666e-02
5.255380360285912683e-02
4.644388131631997652e-02
3.965961006311329723e-02
3.359005595261348176e-02
3.153051080078928675e-02
2.981627428226682128e-02
2.902699709162539013e-02
2.758014016025901391e-02
2.853144050616015712e-02
2.839759732909412013e-02
2.443515168802868828e-02
1.684099086141593177e-02
-1.355843884380767859e-03
-2.314588920256769114e-02
-3.210140339219494376e-02
-2.259858976267918249e-02
-3.416035963600401720e-03
-1.246395620838913233e-04
5.113413805213397074e-04
1.606176807446446034e-03
6.698945113306201647e-03
2.164264070496760631e-02
4.000819537073202481e-02
4.628216887967469967e-02
5.067942300703064118e-02
5.221897877395027809e-02
5.103081141078961297e-02
4.858759593692888595e-02
4.518181145604867333e-02
4.173917813244828329e-02
3.706366609475188201e-02
3.190478930914545513e-02
3.042531393798206599e-02
2.901374786088427651e-02
2.794766525457409792e-02
2.584503898137959638e-02
2.145175441948662595e-02
1.832719941298522129e-02
1.377335205151791232e-02
7.900487858473099340e-03
-6.826107793921472496e-03
-2.559402516393701962e-02
-3.390840215318054185e-02
-2.767392855454943457e-02
-4.770673102878803147e-03
-1.225462636459787350e-04
9.880137963351636653e-06
8.424587213613726842e-04
5.832203027335854280e-03
2.075379342033500593e-02
3.545836406600019058e-02
3.848288240255000325e-02
4.024597351060089923e-02
4.161100139377561097e-02
4.519496584266027850e-02
4.503359680104533636e-02
4.191656843136951777e-02
3.887799893388018541e-02
3.473656547930294158e-02
3.105829582040934428e-02
3.109898623640765247e-02
2.946195198906612772e-02
2.845600931910715475e-02
2.676837584454195770e-02
2.003501421049377548e-02
1.402722102787180673e-02
1.019204539653469598e-02
5.520694835205952611e-03
-6.835702864599863850e-03
-2.542567595704057007e-02
-3.367056208470660394e-02
-3.136308464658132261e-02
-6.637370447826332516e-03
-8.603905327241316743e-04
-3.979778269080183270e-03
-4.137300593514826701e-03
6.684674024634717918e-04
1.454305305179698707e-02
2.574612826375511851e-02
2.927122775567642110e-02
3.131247134847549990e-02
3.449236474778444306e-02
4.195736807936668866e-02
4.205251681704820499e-02
3.867321864820811445e-02
3.613213673673959514e-02
3.325336331120547217e-02
3.091384105116049344e-02
3.118720570829247585e-02
3.003663095509182673e-02
2.854389616473032229e-02
2.719162754546118263e-02
1.905393254755085794e-02
1.191330638643631548e-02
1.013193552807097053e-02
5.749234202429894663e-03
-5.968598602849942147e-03
-2.442936353897964472e-02
-3.351157023533284096e-02
-3.468042953818688962e-02
-8.861730660409142257e-03
-3.746184120746081161e-03
-1.154745201664128876e-02
-1.146603206753198274e-02
-5.664421609311358526e-03
8.427310410273895075e-03
1.895230917293311973e-02
2.399169671062065939e-02
2.461552043023011033e-02
2.830684745449113873e-02
3.836677496823694133e-02
3.767744265274534932e-02
3.536020326477750525e-02
3.358297391551189059e-02
3.165745732189098605e-02
2.985854083958366934e-02
3.045639337465288685e-02
2.928466036882220250e-02
2.744334882524008395e-02
2.578602202147926153e-02
1.717242817329906607e-02
8.395628058024294169e-03
7.571694825107708193e-03
4.208895731497280975e-03
-6.110837450669058535e-03
-2.437752916921474139e-02
-3.425327664579187747e-02
-3.699862335385768752e-02
-1.100989379326047096e-02
-7.071938201210816073e-03
-1.700951909850752924e-02
-1.617349149256009852e-02
-1.030483905333368783e-02
3.810398504765814646e-03
1.368466434203596122e-02
1.794298592484485852e-02
1.777206587110742933e-02
2.352327204065491131e-02
3.479917879941456238e-02
3.390199885128481611e-02
3.244188646261578907e-02
3.195046009312795671e-02
2.978080826851321750e-02
2.823069966281139750e-02
2.867750785014297477e-02
2.731040015674946961e-02
2.545318520286059955e-02
2.482024801128973612e-02
1.761878254094551705e-02
7.852584041776111343e-03
7.733287175848999571e-03
4.541713290874138317e-03
-5.075207438233069607e-03
-2.353685670225451679e-02
-3.368416073079948808e-02
-3.729917181009260313e-02
-1.190057546647222200e-02
-7.633244302895001582e-03
-1.826055791472242645e-02
-1.857044520225769463e-02
-1.279155298582059473e-02
1.182708266225807438e-03
1.079940234958475832e-02
1.475334264241667630e-02
1.356339233589257121e-02
2.190087331499193310e-02
3.362846758903393490e-02
3.277517244742248620e-02
3.218252615753025569e-02
3.184484413029180921e-02
3.017964040643318982e-02
2.884318891067057244e-02
2.936144299960386297e-02
2.876864891127223905e-02
2.827131755882768965e-02
2.927385047215676911e-02
2.402672357062949834e-02
1.330138067103551688e-02
1.243715816670667822e-02
8.601285855286563975e-03
-1.044022733843667393e-03
-1.921902448530724353e-02
-2.993530760753478417e-02
-3.376258299308335792e-02
-1.097799766483935520e-02
-5.320768793926925963e-03
-1.586151763422678079e-02
-1.714746470612285925e-02
-1.087201591571448911e-02
3.926158530824069501e-03
1.353520719576582591e-02
1.693720716758932363e-02
1.511716494182772409e-02
2.562301641068071359e-02
3.762892423497267436e-02
3.660230423323723031e-02
3.653217915957282513e-02
3.634446403810214637e-02
3.557489917025860593e-02
3.433037784236916273e-02
3.535576736177332979e-02
3.520787399899431153e-02
3.538132835453785402e-02
3.697615120840749836e-02
3.300513821375664764e-02
1.954400277227468993e-02
1.695251021307107517e-02
1.293156790906989199e-02
3.555368429138385574e-03
-1.428625580841945929e-02
-2.553441556713480221e-02
-2.938275466567341968e-02
-9.792198564816549655e-03
-4.081693450783045393e-03
-1.200747501275772899e-02
-1.274398994022007091e-02
-6.954369141187669370e-03
8.123975940042833799e-03
1.806090970700947873e-02
2.070256762357786107e-02
1.881925586258580141e-02
3.167261166650343907e-02
4.282386683369140967e-02
4.193086983629992770e-02
4.145094833818361441e-02
4.091184877425341204e-02
3.946433643401562469e-02
3.846093986799330178e-02
3.955224987486924415e-02
3.996535047327098161e-02
4.092913491225221023e-02
4.291902559360283309e-02
3.918330631714686541e-02
2.453643948262935678e-02
2.068520604171548982e-02
1.735566073399088735e-02
8.534634372245067380e-03
-8.819557853454675425e-03
-2.119035973563709874e-02
-2.337445388123294415e-02
-6.833122148251002254e-03
-3.383348213798865328e-03
-8.800487958322172552e-03
-7.856955486840625641e-03
-1.140159628815256773e-03
1.385456910541764224e-02
2.298079623598557955e-02
2.490708000625415502e-02
2.260543601818144899e-02
3.724956785216471111e-02
4.697023114586326015e-02
4.675490363656047837e-02
4.667321008432898100e-02
4.642806103559981440e-02
4.573786609170212014e-02
4.535894646980932754e-02
4.667512809121713430e-02
4.832118558763726784e-02
4.987329332369444534e-02
5.155489495728145244e-02
4.785420826843839182e-02
3.151470447434937677e-02
2.699934338175440096e-02
2.433289852364622571e-02
1.571658205421840385e-02
-1.699297722585015697e-03
-1.369630844894554646e-02
-1.481421917294465165e-02
-4.051293940343530554e-03
-2.132769795843657105e-03
-5.483573612598696863e-03
-4.383762336368292843e-03
2.876360385529520315e-03
1.817732343219360600e-02
2.759470146884571498e-02
2.911383152784536091e-02
2.729492555603370632e-02
4.350666679060008479e-02
5.259978855497001587e-02
5.268047272526452801e-02
5.296082551621342227e-02
5.327078398080599408e-02
5.252049549017314550e-02
5.169137875666773851e-02
5.371869731926427749e-02
5.583736597997192991e-02
5.781355441250054378e-02
5.921212379376535051e-02
5.526151157791003854e-02
3.762985533848885178e-02
3.223486934254550518e-02
3.002169220263211161e-02
2.181851273907283242e-02
5.143032957778144627e-03
-7.451871245314903476e-03
-9.420729218046800316e-03
-2.781785031692158607e-03
-1.218603285175502747e-03
-2.831993747485127277e-03
-1.366006010116138083e-03
6.464816387491073915e-03
2.214245293593420164e-02
3.167217806897635463e-02
3.228267019359260664e-02
3.006839526423087106e-02
4.763222717623402658e-02
5.651628164378274394e-02
5.675412309578843628e-02
5.684050849963712820e-02
5.677605936841421258e-02
5.610776991951577086e-02
5.627397480184657269e-02
5.893095411459619432e-02
6.113471865975648317e-02
6.254645288898778854e-02
6.265035747569946967e-02
5.871022085394393686e-02
4.095657006013405516e-02
3.492729222964745250e-02
3.401100544896636102e-02
2.607297529704302383e-02
9.646012781145905587e-03
-3.229215473289745193e-03
-4.894561002065304922e-03
-1.204996412084116241e-03
-6.960984104220225687e-04
-1.353658429600556505e-03
2.948115429204338912e-04
8.416677751411633449e-03
2.439520508665183815e-02
3.397037607476199178e-02
3.412343074329478310e-02
3.202753645326871651e-02
4.972013185834806698e-02
5.815099328405474999e-02
5.872510895002494569e-02
5.861413334300535211e-02
5.866214593691646689e-02
5.848828717609044769e-02
5.881464275018533083e-02
6.118292111333318434e-02
6.265440481431133746e-02
6.357206464792936051e-02
6.339829560860811564e-02
5.993140637896608031e-02
4.275714814167480560e-02
3.625572103507541250e-02
3.655785639400005449e-02
2.901820082369705942e-02
1.295319506094542994e-02
-9.274288508603450694e-05
-1.821340306323573997e-03
-3.406345068120154016e-04
-2.780552856915138827e-04
-2.425949379299966921e-04
1.691123369753972554e-03
9.876328383596349320e-03
2.553470881645455992e-02
3.499573372438683633e-02
3.462768371596205985e-02
3.191730707953249757e-02
4.862018743690470907e-02
5.635419469513154589e-02
5.761101323677823849e-02
5.762900718953621604e-02
5.780599984863266788e-02
5.784542837212126171e-02
5.788683971361683472e-02
5.980096507313106824e-02
6.074542593624550346e-02
6.087987249926471445e-02
6.046589466276908881e-02
5.727463013213928561e-02
4.200231906543272498e-02
3.596949221130078117e-02
3.738284224515282805e-02
3.059655660050484768e-02
1.505698240316461975e-02
2.170845876673807139e-03
-2.230831674176176162e-04
1.447518155887816884e-04
-1.144863225165837262e-04
1.522255357869970718e-04
1.902766418601016876e-03
9.699159862328056783e-03
2.517274387643709394e-02
3.486410233235370110e-02
3.383329569086449690e-02
3.012215134924587506e-02
4.387019873160125788e-02
5.138580059051166965e-02
5.236998649005313727e-02
5.231225021952544407e-02
5.260175289474999794e-02
5.239968167971360141e-02
5.243404743891357661e-02
5.360833737361665741e-02
5.423861414088879118e-02
5.420847722934901691e-02
5.388416631892482822e-02
5.082770061814293611e-02
3.759753659887779542e-02
3.347518176519426875e-02
3.671842167867952339e-02
3.064357079279904014e-02
1.519296599581200849e-02
3.081593253553568858e-03
6.281479859934261355e-04
2.177814478624949545e-04
-1.727985379824730116e-07
2.159125999188016905e-04
1.494554601695562233e-03
8.471635102895841082e-03
2.336759841175082078e-02
3.295187056459186747e-02
3.147253298451408582e-02
2.643981522767709091e-02
3.580810032838856183e-02
4.473686833768335258e-02
4.741802882374957645e-02
4.836960513604941087e-02
4.846908614768125068e-02
4.782605418196789887e-02
4.731196602712046256e-02
4.795315302836000021e-02
4.848564295682845915e-02
4.815083736096461425e-02
4.638367380184683919e-02
4.069484018703193456e-02
2.987254759973499707e-02
2.941495950200402262e-02
3.408929658937470686e-02
2.852856363431278963e-02
1.421310871309074131e-02
2.844255995499879973e-03
6.130271726740678991e-04
1.303399222631793325e-04
-1.073113822356865293e-05
4.123936735222058557e-05
3.696986958141702893e-04
2.975829696756655991e-03
9.814427102431600228e-03
1.546735429888547800e-02
1.312529250429186022e-02
9.041717041564267116e-03
1.231883796274485694e-02
1.698339225735504346e-02
2.071063075759088309e-02
2.256284814626778254e-02
2.375636127439016004e-02
2.442847996806834718e-02
2.413536246833378196e-02
2.384735496875977148e-02
2.326503703791043057e-02
2.174438377388650256e-02
1.867868168118681782e-02
1.446814414864383211e-02
1.003562226112534456e-02
1.088089055058980709e-02
1.582536497694438452e-02
1.344223911161091141e-02
5.567396462959368388e-03
8.893804141753722204e-04
7.967301077055258913e-05
2.700835351360385050e-06
